=== Run information ===

Scheme:       weka.classifiers.trees.J48 -C 0.25 -M 2
Relation:     Database_T-weka.filters.unsupervised.attribute.Remove-R1-4,6-211-weka.filters.unsupervised.instance.RemoveWithValues-S0.0-C1-L2-16,18,19
Instances:    2193
Attributes:   3303
              [list of attributes omitted]
Test mode:    evaluate on training data
Evaluation cost matrix:
  0  1  1  1  1  1  1  1  1  1  1  1  1  1  1  1  1  1  1
  1  0  1  1  1  1  1  1  1  1  1  1  1  1  1  1  1  1  1
  1  1  0  1  1  1  1  1  1  1  1  1  1  1  1  1  1  1  1
  1  1  1  0  1  1  1  1  1  1  1  1  1  1  1  1  1  1  1
  1  1  1  1  0  1  1  1  1  1  1  1  1  1  1  1  1  1  1
  1  1  1  1  1  0  1  1  1  1  1  1  1  1  1  1  1  1  1
  1  1  1  1  1  1  0  1  1  1  1  1  1  1  1  1  1  1  1
  1  1  1  1  1  1  1  0  1  1  1  1  1  1  1  1  1  1  1
  1  1  1  1  1  1  1  1  0  1  1  1  1  1  1  1  1  1  1
  1  1  1  1  1  1  1  1  1  0  1  1  1  1  1  1  1  1  1
  1  1  1  1  1  1  1  1  1  1  0  1  1  1  1  1  1  1  1
  1  1  1  1  1  1  1  1  1  1  1  0  1  1  1  1  1  1  1
  1  1  1  1  1  1  1  1  1  1  1  1  0  1  1  1  1  1  1
  1  1  1  1  1  1  1  1  1  1  1  1  1  0  1  1  1  1  1
  1  1  1  1  1  1  1  1  1  1  1  1  1  1  0  1  1  1  1
  1  1  1  1  1  1  1  1  1  1  1  1  1  1  1  0  1  1  1
 40  1  1  1  1  1  1  1  1  1  1  1  1  1  1  1  0  1  1
  1  1  1  1  1  1  1  1  1  1  1  1  1  1  1  1  1  0  1
  1  1  1  1  1  1  1  1  1  1  1  1  1  1  1  1  1  1  0


=== Classifier model (full training set) ===

J48 pruned tree
------------------

k__Bacteria|p__Proteobacteria|c__Gammaproteobacteria|o__Enterobacteriales|f__Enterobacteriaceae|g__Hafnia <= 0
|   k__Bacteria|p__Firmicutes|c__Clostridia|o__Clostridiales|f__Lachnospiraceae|g__Blautia|s__Ruminococcus_torques|t__GCF_000210035 <= 1.33239
|   |   k__Bacteria|p__Actinobacteria|c__Actinobacteria|o__Coriobacteriales|f__Coriobacteriaceae|g__Coriobacteriaceae_noname|s__Coriobacteriaceae_bacterium_phI <= 0.06934
|   |   |   k__Bacteria|p__Firmicutes|c__Bacilli|o__Lactobacillales|f__Streptococcaceae|g__Streptococcus|s__Streptococcus_thermophilus <= 0.0477:  n (1839.12/9.87)
|   |   |   k__Bacteria|p__Firmicutes|c__Bacilli|o__Lactobacillales|f__Streptococcaceae|g__Streptococcus|s__Streptococcus_thermophilus > 0.0477
|   |   |   |   k__Bacteria|p__Firmicutes|c__Clostridia|o__Clostridiales|f__Clostridiaceae|g__Clostridium|s__Clostridium_celatum <= 0.01893
|   |   |   |   |   k__Bacteria|p__Firmicutes|c__Clostridia|o__Clostridiales|f__Eubacteriaceae|g__Eubacterium|s__Eubacterium_limosum <= 0.7693
|   |   |   |   |   |   k__Bacteria|p__Bacteroidetes|c__Bacteroidia|o__Bacteroidales|f__Bacteroidaceae|g__Bacteroides|s__Bacteroides_eggerthii <= 13.23274
|   |   |   |   |   |   |   k__Bacteria|p__Fusobacteria|c__Fusobacteriia|o__Fusobacteriales|f__Fusobacteriaceae|g__Fusobacterium <= 5.21404
|   |   |   |   |   |   |   |   k__Bacteria|p__Actinobacteria <= 0.00865:  cancer (2.01/0.01)
|   |   |   |   |   |   |   |   k__Bacteria|p__Actinobacteria > 0.00865:  n (171.22/3.73)
|   |   |   |   |   |   |   k__Bacteria|p__Fusobacteria|c__Fusobacteriia|o__Fusobacteriales|f__Fusobacteriaceae|g__Fusobacterium > 5.21404:  cancer (2.01/0.01)
|   |   |   |   |   |   k__Bacteria|p__Bacteroidetes|c__Bacteroidia|o__Bacteroidales|f__Bacteroidaceae|g__Bacteroides|s__Bacteroides_eggerthii > 13.23274:  cancer (2.01/0.01)
|   |   |   |   |   k__Bacteria|p__Firmicutes|c__Clostridia|o__Clostridiales|f__Eubacteriaceae|g__Eubacterium|s__Eubacterium_limosum > 0.7693:  cancer (2.01/0.01)
|   |   |   |   k__Bacteria|p__Firmicutes|c__Clostridia|o__Clostridiales|f__Clostridiaceae|g__Clostridium|s__Clostridium_celatum > 0.01893:  cancer (3.02/0.01)
|   |   k__Bacteria|p__Actinobacteria|c__Actinobacteria|o__Coriobacteriales|f__Coriobacteriaceae|g__Coriobacteriaceae_noname|s__Coriobacteriaceae_bacterium_phI > 0.06934
|   |   |   k__Bacteria|p__Firmicutes|c__Clostridia|o__Clostridiales|f__Lachnospiraceae|g__Roseburia <= 2.38462:  n (15.11/0.06)
|   |   |   k__Bacteria|p__Firmicutes|c__Clostridia|o__Clostridiales|f__Lachnospiraceae|g__Roseburia > 2.38462:  cancer (6.04/1.02)
|   k__Bacteria|p__Firmicutes|c__Clostridia|o__Clostridiales|f__Lachnospiraceae|g__Blautia|s__Ruminococcus_torques|t__GCF_000210035 > 1.33239
|   |   k__Bacteria|p__Firmicutes|c__Bacilli|o__Lactobacillales|f__Carnobacteriaceae|g__Granulicatella|s__Granulicatella_elegans <= 0.0017
|   |   |   k__Bacteria|p__Firmicutes|c__Clostridia|o__Clostridiales|f__Clostridiaceae|g__Clostridium|s__Clostridium_clostridioforme <= 0.00232
|   |   |   |   k__Bacteria|p__Firmicutes|c__Negativicutes|o__Selenomonadales|f__Veillonellaceae|g__Dialister|s__Dialister_succinatiphilus <= 0.66779
|   |   |   |   |   k__Bacteria|p__Firmicutes|c__Erysipelotrichia|o__Erysipelotrichales|f__Erysipelotrichaceae|g__Erysipelotrichaceae_noname|s__Eubacterium_cylindroides <= 0.64562
|   |   |   |   |   |   k__Bacteria|p__Firmicutes|c__Bacilli|o__Lactobacillales|f__Streptococcaceae|g__Streptococcus|s__Streptococcus_thermophilus <= 1.9368:  n (36.26/1.16)
|   |   |   |   |   |   k__Bacteria|p__Firmicutes|c__Bacilli|o__Lactobacillales|f__Streptococcaceae|g__Streptococcus|s__Streptococcus_thermophilus > 1.9368:  cancer (3.02/1.01)
|   |   |   |   |   k__Bacteria|p__Firmicutes|c__Erysipelotrichia|o__Erysipelotrichales|f__Erysipelotrichaceae|g__Erysipelotrichaceae_noname|s__Eubacterium_cylindroides > 0.64562:  cancer (2.01/0.01)
|   |   |   |   k__Bacteria|p__Firmicutes|c__Negativicutes|o__Selenomonadales|f__Veillonellaceae|g__Dialister|s__Dialister_succinatiphilus > 0.66779:  cancer (2.01/0.01)
|   |   |   k__Bacteria|p__Firmicutes|c__Clostridia|o__Clostridiales|f__Clostridiaceae|g__Clostridium|s__Clostridium_clostridioforme > 0.00232:  cancer (2.01/0.01)
|   |   k__Bacteria|p__Firmicutes|c__Bacilli|o__Lactobacillales|f__Carnobacteriaceae|g__Granulicatella|s__Granulicatella_elegans > 0.0017:  cancer (3.02/0.01)
k__Bacteria|p__Proteobacteria|c__Gammaproteobacteria|o__Enterobacteriales|f__Enterobacteriaceae|g__Hafnia > 0
|   k__Bacteria|p__Bacteroidetes|c__Bacteroidia|o__Bacteroidales|f__Bacteroidaceae|g__Bacteroides|s__Bacteroides_massiliensis <= 0.00405:  cancer (7.05/1.02)
|   k__Bacteria|p__Bacteroidetes|c__Bacteroidia|o__Bacteroidales|f__Bacteroidaceae|g__Bacteroides|s__Bacteroides_massiliensis > 0.00405:  n (4.03/0.02)

Number of Leaves  : 	17

Size of the tree : 	33


Time taken to build model: 5.31 seconds

=== Evaluation on training set ===

Time taken to test model on training data: 0.07 seconds

=== Summary ===

Correctly Classified Instances        2084               99.1437 %
Incorrectly Classified Instances        18                0.8563 %
Kappa statistic                          0.7814
Total Cost                             603     
Average Cost                             0.2869
Mean absolute error                      0.0017
Root mean squared error                  0.0291
Relative absolute error                 30.9026 %
Root relative squared error             59.9923 %
Total Number of Instances             2102     
Ignored Class Unknown Instances                 91     

=== Detailed Accuracy By Class ===

                 TP Rate  FP Rate  Precision  Recall   F-Measure  MCC      ROC Area  PRC Area  Class
                 0.999    0.313    0.993      0.999    0.996      0.790    0.901     0.987      n
                 ?        0.000    ?          ?        ?          ?        ?         ?          obesity
                 ?        0.000    ?          ?        ?          ?        ?         ?          leaness
                 ?        0.000    ?          ?        ?          ?        ?         ?          nd
                 ?        0.000    ?          ?        ?          ?        ?         ?          stec2-positive
                 ?        0.000    ?          ?        ?          ?        ?         ?          -
                 ?        0.000    ?          ?        ?          ?        ?         ?          ibd_ulcerative_colitis
                 ?        0.000    ?          ?        ?          ?        ?         ?          ibd_crohn_disease
                 ?        0.000    ?          ?        ?          ?        ?         ?          n_relative
                 ?        0.000    ?          ?        ?          ?        ?         ?          y
                 ?        0.000    ?          ?        ?          ?        ?         ?          cirrhosis
                 ?        0.000    ?          ?        ?          ?        ?         ?          obese
                 ?        0.000    ?          ?        ?          ?        ?         ?          overweight
                 ?        0.000    ?          ?        ?          ?        ?         ?          underweight
                 ?        0.000    ?          ?        ?          ?        ?         ?          t2d
                 ?        0.000    ?          ?        ?          ?        ?         ?          impaired_glucose_tolerance
                 0.688    0.001    0.917      0.688    0.786      0.790    0.964     0.744      cancer
                 ?        0.000    ?          ?        ?          ?        ?         ?          small_adenoma
                 ?        0.000    ?          ?        ?          ?        ?         ?          large_adenoma
Weighted Avg.    0.991    0.305    0.991      0.991    0.991      0.790    0.902     0.982     

=== Confusion Matrix ===

    a    b    c    d    e    f    g    h    i    j    k    l    m    n    o    p    q    r    s   <-- classified as
 2051    0    0    0    0    0    0    0    0    0    0    0    0    0    0    0    3    0    0 |    a =  n
    0    0    0    0    0    0    0    0    0    0    0    0    0    0    0    0    0    0    0 |    b =  obesity
    0    0    0    0    0    0    0    0    0    0    0    0    0    0    0    0    0    0    0 |    c =  leaness
    0    0    0    0    0    0    0    0    0    0    0    0    0    0    0    0    0    0    0 |    d =  nd
    0    0    0    0    0    0    0    0    0    0    0    0    0    0    0    0    0    0    0 |    e =  stec2-positive
    0    0    0    0    0    0    0    0    0    0    0    0    0    0    0    0    0    0    0 |    f =  -
    0    0    0    0    0    0    0    0    0    0    0    0    0    0    0    0    0    0    0 |    g =  ibd_ulcerative_colitis
    0    0    0    0    0    0    0    0    0    0    0    0    0    0    0    0    0    0    0 |    h =  ibd_crohn_disease
    0    0    0    0    0    0    0    0    0    0    0    0    0    0    0    0    0    0    0 |    i =  n_relative
    0    0    0    0    0    0    0    0    0    0    0    0    0    0    0    0    0    0    0 |    j =  y
    0    0    0    0    0    0    0    0    0    0    0    0    0    0    0    0    0    0    0 |    k =  cirrhosis
    0    0    0    0    0    0    0    0    0    0    0    0    0    0    0    0    0    0    0 |    l =  obese
    0    0    0    0    0    0    0    0    0    0    0    0    0    0    0    0    0    0    0 |    m =  overweight
    0    0    0    0    0    0    0    0    0    0    0    0    0    0    0    0    0    0    0 |    n =  underweight
    0    0    0    0    0    0    0    0    0    0    0    0    0    0    0    0    0    0    0 |    o =  t2d
    0    0    0    0    0    0    0    0    0    0    0    0    0    0    0    0    0    0    0 |    p =  impaired_glucose_tolerance
   15    0    0    0    0    0    0    0    0    0    0    0    0    0    0    0   33    0    0 |    q =  cancer
    0    0    0    0    0    0    0    0    0    0    0    0    0    0    0    0    0    0    0 |    r =  small_adenoma
    0    0    0    0    0    0    0    0    0    0    0    0    0    0    0    0    0    0    0 |    s =  large_adenoma



