=== Run information ===

Scheme:       weka.classifiers.trees.J48 -C 0.25 -M 2
Relation:     Database_T-weka.filters.unsupervised.attribute.Remove-R1-4,6,9-20,22-211-weka.filters.unsupervised.instance.RemoveWithValues-S0.0-C1-L4,6,10-weka.filters.unsupervised.instance.RemoveWithValues-S0.0-C1-L2,3,5,8,9,11,12,13,14,15,16,17,18,19
Instances:    2293
Attributes:   3306
              [list of attributes omitted]
Test mode:    split 66.0% train, remainder test

=== Classifier model (full training set) ===

J48 pruned tree
------------------

Number of Leaves  : 	29

Size of the tree : 	40


Time taken to build model: 3.54 seconds

=== Evaluation on test split ===

Time taken to test model on test split: 0.01 seconds

=== Summary ===

Correctly Classified Instances         725               97.185  %
Incorrectly Classified Instances        21                2.815  %
Kappa statistic                          0.7437
Mean absolute error                      0.0035
Root mean squared error                  0.0532
Relative absolute error                 24.7066 %
Root relative squared error             68.7312 %
Total Number of Instances              746     
Ignored Class Unknown Instances                 34     

=== Detailed Accuracy By Class ===

                 TP Rate  FP Rate  Precision  Recall   F-Measure  MCC      ROC Area  PRC Area  Class
                 0.987    0.267    0.983      0.987    0.985      0.744    0.890     0.977      n
                 ?        0.000    ?          ?        ?          ?        ?         ?          obesity
                 ?        0.000    ?          ?        ?          ?        ?         ?          leaness
                 ?        0.000    ?          ?        ?          ?        ?         ?          nd
                 ?        0.000    ?          ?        ?          ?        ?         ?          stec2-positive
                 ?        0.000    ?          ?        ?          ?        ?         ?          -
                 0.733    0.013    0.786      0.733    0.759      0.744    0.864     0.608      ibd_ulcerative_colitis
                 ?        0.000    ?          ?        ?          ?        ?         ?          ibd_crohn_disease
                 ?        0.000    ?          ?        ?          ?        ?         ?          n_relative
                 ?        0.000    ?          ?        ?          ?        ?         ?          y
                 ?        0.000    ?          ?        ?          ?        ?         ?          cirrhosis
                 ?        0.000    ?          ?        ?          ?        ?         ?          obese
                 ?        0.000    ?          ?        ?          ?        ?         ?          overweight
                 ?        0.000    ?          ?        ?          ?        ?         ?          underweight
                 ?        0.000    ?          ?        ?          ?        ?         ?          t2d
                 ?        0.000    ?          ?        ?          ?        ?         ?          impaired_glucose_tolerance
                 ?        0.000    ?          ?        ?          ?        ?         ?          cancer
                 ?        0.000    ?          ?        ?          ?        ?         ?          small_adenoma
                 ?        0.000    ?          ?        ?          ?        ?         ?          large_adenoma
Weighted Avg.    0.972    0.251    0.971      0.972    0.971      0.744    0.888     0.954     

=== Confusion Matrix ===

   a   b   c   d   e   f   g   h   i   j   k   l   m   n   o   p   q   r   s   <-- classified as
 692   0   0   0   0   0   9   0   0   0   0   0   0   0   0   0   0   0   0 |   a =  n
   0   0   0   0   0   0   0   0   0   0   0   0   0   0   0   0   0   0   0 |   b =  obesity
   0   0   0   0   0   0   0   0   0   0   0   0   0   0   0   0   0   0   0 |   c =  leaness
   0   0   0   0   0   0   0   0   0   0   0   0   0   0   0   0   0   0   0 |   d =  nd
   0   0   0   0   0   0   0   0   0   0   0   0   0   0   0   0   0   0   0 |   e =  stec2-positive
   0   0   0   0   0   0   0   0   0   0   0   0   0   0   0   0   0   0   0 |   f =  -
  12   0   0   0   0   0  33   0   0   0   0   0   0   0   0   0   0   0   0 |   g =  ibd_ulcerative_colitis
   0   0   0   0   0   0   0   0   0   0   0   0   0   0   0   0   0   0   0 |   h =  ibd_crohn_disease
   0   0   0   0   0   0   0   0   0   0   0   0   0   0   0   0   0   0   0 |   i =  n_relative
   0   0   0   0   0   0   0   0   0   0   0   0   0   0   0   0   0   0   0 |   j =  y
   0   0   0   0   0   0   0   0   0   0   0   0   0   0   0   0   0   0   0 |   k =  cirrhosis
   0   0   0   0   0   0   0   0   0   0   0   0   0   0   0   0   0   0   0 |   l =  obese
   0   0   0   0   0   0   0   0   0   0   0   0   0   0   0   0   0   0   0 |   m =  overweight
   0   0   0   0   0   0   0   0   0   0   0   0   0   0   0   0   0   0   0 |   n =  underweight
   0   0   0   0   0   0   0   0   0   0   0   0   0   0   0   0   0   0   0 |   o =  t2d
   0   0   0   0   0   0   0   0   0   0   0   0   0   0   0   0   0   0   0 |   p =  impaired_glucose_tolerance
   0   0   0   0   0   0   0   0   0   0   0   0   0   0   0   0   0   0   0 |   q =  cancer
   0   0   0   0   0   0   0   0   0   0   0   0   0   0   0   0   0   0   0 |   r =  small_adenoma
   0   0   0   0   0   0   0   0   0   0   0   0   0   0   0   0   0   0   0 |   s =  large_adenoma